network "unnamedBN" {
// written by aGrUM 2.0.1
}

variable X03 {
   type discrete[2] {0, 1};
}

variable X05 {
   type discrete[3] {0, 1, 2};
}

variable X01 {
   type discrete[3] {0, 1, 2};
}

variable X08 {
   type discrete[4] {0, 1, 2, 3};
}

variable X04 {
   type discrete[2] {0, 1};
}

variable X02 {
   type discrete[4] {0, 1, 2, 3};
}

variable X09 {
   type discrete[2] {0, 1};
}

variable X06 {
   type discrete[2] {0, 1};
}

variable X07 {
   type discrete[2] {0, 1};
}

variable X00 {
   type discrete[3] {0, 1, 2};
}

probability (X03) {
   table 0.580072 0.419928;
}
probability (X05 | X00, X04) {
   (0, 0) 0.428355 0.292673 0.278972;
   (1, 0) 0.150459 0.439615 0.409926;
   (2, 0) 0.624711 0.24537 0.129919;
   (0, 1) 0.515562 0.13292 0.351519;
   (1, 1) 0.429116 0.139264 0.43162;
   (2, 1) 0.49456 0.495989 0.00945172;
}
probability (X01) {
   table 0.247149 0.367193 0.385658;
}
probability (X08 | X00, X07) {
   (0, 0) 0.188397 0.143422 0.318283 0.349898;
   (1, 0) 0.362335 0.0397933 0.343199 0.254672;
   (2, 0) 0.277234 0.461884 0.0236873 0.237194;
   (0, 1) 0.194506 0.370827 0.286093 0.148575;
   (1, 1) 0.263492 0.0554073 0.618903 0.0621976;
   (2, 1) 0.0228197 0.280016 0.186675 0.510489;
}
probability (X04 | X03) {
   (0) 0.616709 0.383291;
   (1) 0.180795 0.819205;
}
probability (X02 | X01) {
   (0) 0.224378 0.246664 0.2195 0.309457;
   (1) 0.000604479 0.63574 0.130571 0.233085;
   (2) 0.217148 0.695228 0.01202 0.0756039;
}
probability (X09 | X08) {
   (0) 0.676868 0.323132;
   (1) 0.412781 0.587219;
   (2) 0.281293 0.718707;
   (3) 0.368334 0.631666;
}
probability (X06 | X03) {
   (0) 0.713744 0.286256;
   (1) 0.0842415 0.915758;
}
probability (X07 | X06, X01) {
   (0, 0) 0.522579 0.477421;
   (1, 0) 0.527314 0.472686;
   (0, 1) 0.687217 0.312783;
   (1, 1) 0.556248 0.443752;
   (0, 2) 0.544589 0.455411;
   (1, 2) 0.543554 0.456446;
}
probability (X00) {
   table 0.32394 0.477621 0.198439;
}

