network "unnamedBN" {
// written by aGrUM 2.0.1
}

variable X07 {
   type discrete[3] {0, 1, 2};
}

variable X03 {
   type discrete[3] {0, 1, 2};
}

variable X02 {
   type discrete[4] {0, 1, 2, 3};
}

variable X06 {
   type discrete[4] {0, 1, 2, 3};
}

variable X01 {
   type discrete[2] {0, 1};
}

variable X05 {
   type discrete[2] {0, 1};
}

variable X04 {
   type discrete[2] {0, 1};
}

variable X00 {
   type discrete[2] {0, 1};
}

variable X08 {
   type discrete[4] {0, 1, 2, 3};
}

variable X09 {
   type discrete[4] {0, 1, 2, 3};
}

probability (X07) {
   table 0.167415 0.510541 0.322044;
}
probability (X03 | X02, X00) {
   (0, 0) 0.265998 0.453847 0.280155;
   (1, 0) 0.387501 0.308928 0.30357;
   (2, 0) 0.419531 0.262334 0.318135;
   (3, 0) 0.330192 0.297991 0.371817;
   (0, 1) 0.258542 0.342508 0.39895;
   (1, 1) 0.125331 0.604555 0.270113;
   (2, 1) 0.617674 0.138238 0.244088;
   (3, 1) 0.591627 0.0105681 0.397805;
}
probability (X02) {
   table 0.318004 0.0872988 0.29875 0.295947;
}
probability (X06 | X04, X05) {
   (0, 0) 0.0966595 0.232943 0.420049 0.250349;
   (1, 0) 0.199396 0.263141 0.257074 0.280389;
   (0, 1) 0.107347 0.235315 0.281832 0.375506;
   (1, 1) 0.0123499 0.561061 0.396781 0.0298085;
}
probability (X01) {
   table 0.128425 0.871575;
}
probability (X05 | X04) {
   (0) 0.0164498 0.98355;
   (1) 0.932685 0.0673145;
}
probability (X04 | X02, X01) {
   (0, 0) 0.691031 0.308969;
   (1, 0) 0.564116 0.435884;
   (2, 0) 0.813891 0.186109;
   (3, 0) 0.571751 0.428249;
   (0, 1) 0.525463 0.474537;
   (1, 1) 0.466102 0.533898;
   (2, 1) 0.552906 0.447094;
   (3, 1) 0.601667 0.398333;
}
probability (X00) {
   table 0.346942 0.653058;
}
probability (X08 | X03, X07) {
   (0, 0) 0.340264 0.0692461 0.470107 0.120383;
   (1, 0) 0.401765 0.151618 0.324351 0.122266;
   (2, 0) 0.308871 0.17062 0.302239 0.21827;
   (0, 1) 0.179943 0.2404 0.22418 0.355477;
   (1, 1) 0.0337907 0.450295 0.457447 0.0584677;
   (2, 1) 0.180033 0.330229 0.277021 0.212717;
   (0, 2) 0.241402 0.648181 0.0780882 0.0323291;
   (1, 2) 0.290935 0.227253 0.067329 0.414483;
   (2, 2) 0.150109 0.493512 0.311589 0.0447903;
}
probability (X09 | X08) {
   (0) 0.0152178 0.441264 0.10069 0.442829;
   (1) 0.128306 0.358316 0.236335 0.277043;
   (2) 0.333113 0.230315 0.423563 0.0130092;
   (3) 0.0655806 0.343695 0.324128 0.266596;
}

