network "unnamedBN" {
// written by aGrUM 2.0.1
}

variable X07 {
   type discrete[4] {0, 1, 2, 3};
}

variable X04 {
   type discrete[4] {0, 1, 2, 3};
}

variable X01 {
   type discrete[3] {0, 1, 2};
}

variable X05 {
   type discrete[2] {0, 1};
}

variable X03 {
   type discrete[2] {0, 1};
}

variable X06 {
   type discrete[3] {0, 1, 2};
}

variable X02 {
   type discrete[3] {0, 1, 2};
}

variable X08 {
   type discrete[3] {0, 1, 2};
}

variable X09 {
   type discrete[3] {0, 1, 2};
}

variable X00 {
   type discrete[3] {0, 1, 2};
}

probability (X07 | X02, X06) {
   (0, 0) 0.313688 0.149343 0.157115 0.379854;
   (1, 0) 0.286367 0.148391 0.323691 0.24155;
   (2, 0) 0.364755 0.0924919 0.468705 0.0740489;
   (0, 1) 0.182763 0.364378 0.26289 0.18997;
   (1, 1) 0.297922 0.313032 0.17264 0.216406;
   (2, 1) 0.332831 0.110623 0.30914 0.247407;
   (0, 2) 0.339705 0.0647046 0.553182 0.0424077;
   (1, 2) 0.276859 0.251944 0.261808 0.209389;
   (2, 2) 0.274239 0.5313 0.0381889 0.156272;
}
probability (X04 | X03) {
   (0) 0.284501 0.345762 0.314403 0.0553343;
   (1) 0.163827 0.184021 0.320693 0.331459;
}
probability (X01 | X00) {
   (0) 0.503108 0.201166 0.295726;
   (1) 0.122205 0.478304 0.399491;
   (2) 0.190385 0.398392 0.411223;
}
probability (X05 | X04) {
   (0) 0.614189 0.385811;
   (1) 0.691512 0.308488;
   (2) 0.259082 0.740918;
   (3) 0.55067 0.44933;
}
probability (X03 | X02) {
   (0) 0.897773 0.102227;
   (1) 0.680994 0.319006;
   (2) 0.377079 0.622921;
}
probability (X06) {
   table 0.134572 0.350068 0.51536;
}
probability (X02) {
   table 0.920605 0.0384512 0.0409435;
}
probability (X08 | X07, X00) {
   (0, 0) 0.351788 0.424218 0.223994;
   (1, 0) 0.00479771 0.128312 0.866891;
   (2, 0) 0.216436 0.476239 0.307325;
   (3, 0) 0.367774 0.363229 0.268997;
   (0, 1) 0.347738 0.0670442 0.585218;
   (1, 1) 0.0170672 0.933069 0.0498634;
   (2, 1) 0.160132 0.452188 0.38768;
   (3, 1) 0.402817 0.209155 0.388028;
   (0, 2) 0.388129 0.337084 0.274787;
   (1, 2) 0.397906 0.0241553 0.577938;
   (2, 2) 0.352915 0.196869 0.450215;
   (3, 2) 0.474635 0.022671 0.502694;
}
probability (X09 | X05, X07) {
   (0, 0) 0.546667 0.301976 0.151357;
   (1, 0) 0.548588 0.155781 0.295631;
   (0, 1) 0.393088 0.271669 0.335243;
   (1, 1) 0.148333 0.442709 0.408958;
   (0, 2) 0.103461 0.203237 0.693302;
   (1, 2) 0.238362 0.442064 0.319573;
   (0, 3) 0.143757 0.3247 0.531542;
   (1, 3) 0.562246 0.0778729 0.359881;
}
probability (X00) {
   table 0.355724 0.361469 0.282808;
}

