network "unnamedBN" {
// written by aGrUM 2.0.1
}

variable X18 {
   type discrete[3] {0, 1, 2};
}

variable X12 {
   type discrete[4] {0, 1, 2, 3};
}

variable X11 {
   type discrete[4] {0, 1, 2, 3};
}

variable X13 {
   type discrete[2] {0, 1};
}

variable X16 {
   type discrete[4] {0, 1, 2, 3};
}

variable X19 {
   type discrete[3] {0, 1, 2};
}

variable X14 {
   type discrete[4] {0, 1, 2, 3};
}

variable X09 {
   type discrete[3] {0, 1, 2};
}

variable X05 {
   type discrete[3] {0, 1, 2};
}

variable X03 {
   type discrete[4] {0, 1, 2, 3};
}

variable X04 {
   type discrete[3] {0, 1, 2};
}

variable X10 {
   type discrete[3] {0, 1, 2};
}

variable X02 {
   type discrete[3] {0, 1, 2};
}

variable X06 {
   type discrete[2] {0, 1};
}

variable X17 {
   type discrete[2] {0, 1};
}

variable X00 {
   type discrete[2] {0, 1};
}

variable X08 {
   type discrete[2] {0, 1};
}

variable X01 {
   type discrete[3] {0, 1, 2};
}

variable X15 {
   type discrete[4] {0, 1, 2, 3};
}

variable X07 {
   type discrete[3] {0, 1, 2};
}

probability (X18) {
   table 0.122794 0.343903 0.533302;
}
probability (X12 | X11) {
   (0) 0.0538417 0.171173 0.399603 0.375382;
   (1) 0.310822 0.200444 0.0659587 0.422775;
   (2) 0.0817444 0.232627 0.406331 0.279297;
   (3) 0.378853 0.0642254 0.128288 0.428633;
}
probability (X11 | X10, X01, X07) {
   (0, 0, 0) 0.275453 0.0172163 0.174386 0.532944;
   (1, 0, 0) 0.162652 0.442152 0.388799 0.00639643;
   (2, 0, 0) 0.305087 0.24817 0.296549 0.150194;
   (0, 1, 0) 0.315396 0.353058 0.271747 0.0597984;
   (1, 1, 0) 0.089796 0.491726 0.0550103 0.363467;
   (2, 1, 0) 0.0548039 0.472578 0.11013 0.362488;
   (0, 2, 0) 0.37877 0.275212 0.241585 0.104433;
   (1, 2, 0) 0.179126 0.10036 0.297156 0.423359;
   (2, 2, 0) 0.201536 0.104956 0.295276 0.398232;
   (0, 0, 1) 0.243571 0.230179 0.263303 0.262948;
   (1, 0, 1) 0.288757 0.288157 0.135829 0.287257;
   (2, 0, 1) 0.333083 0.530323 0.036479 0.100115;
   (0, 1, 1) 0.0111321 0.337552 0.215094 0.436223;
   (1, 1, 1) 0.656799 0.000798577 0.0395394 0.302863;
   (2, 1, 1) 0.219679 0.112683 0.141552 0.526086;
   (0, 2, 1) 0.226986 0.0858302 0.348724 0.33846;
   (1, 2, 1) 0.385926 0.431317 0.1316 0.0511569;
   (2, 2, 1) 0.296633 0.346057 0.146567 0.210744;
   (0, 0, 2) 0.0433181 0.374858 0.0156089 0.566216;
   (1, 0, 2) 0.171581 0.497025 0.17346 0.157934;
   (2, 0, 2) 0.316531 0.287844 0.249884 0.145741;
   (0, 1, 2) 0.190618 0.296226 0.0391802 0.473976;
   (1, 1, 2) 0.30712 0.338221 0.0613751 0.293283;
   (2, 1, 2) 0.325834 0.293505 0.316109 0.0645518;
   (0, 2, 2) 0.0327339 0.336747 0.18479 0.44573;
   (1, 2, 2) 0.527658 0.00585956 0.186499 0.279984;
   (2, 2, 2) 0.248324 0.336855 0.0425582 0.372263;
}
probability (X13) {
   table 0.628254 0.371746;
}
probability (X16 | X15) {
   (0) 0.21538 0.4724 0.24396 0.0682598;
   (1) 0.202305 0.293581 0.143635 0.360478;
   (2) 0.244019 0.187574 0.261042 0.307365;
   (3) 0.352464 0.129199 0.474927 0.0434094;
}
probability (X19 | X18, X05, X03) {
   (0, 0, 0) 0.406042 0.586779 0.00717894;
   (1, 0, 0) 0.247303 0.48164 0.271057;
   (2, 0, 0) 0.221539 0.157508 0.620952;
   (0, 1, 0) 0.417575 0.185623 0.396801;
   (1, 1, 0) 6.87039e-05 0.912153 0.0877783;
   (2, 1, 0) 0.443311 0.245881 0.310808;
   (0, 2, 0) 0.274959 0.538282 0.186759;
   (1, 2, 0) 0.348722 0.1957 0.455578;
   (2, 2, 0) 0.292823 0.167454 0.539723;
   (0, 0, 1) 0.598773 0.0791643 0.322063;
   (1, 0, 1) 0.901474 0.086337 0.012189;
   (2, 0, 1) 0.265978 0.531346 0.202676;
   (0, 1, 1) 0.270482 0.422619 0.306899;
   (1, 1, 1) 0.497391 0.38503 0.117579;
   (2, 1, 1) 0.252822 0.36533 0.381848;
   (0, 2, 1) 0.233966 0.250769 0.515265;
   (1, 2, 1) 0.266806 0.092333 0.640861;
   (2, 2, 1) 0.639012 0.207028 0.15396;
   (0, 0, 2) 0.479864 0.446334 0.073802;
   (1, 0, 2) 0.406446 0.273197 0.320357;
   (2, 0, 2) 0.228778 0.106028 0.665194;
   (0, 1, 2) 0.493602 0.300727 0.205672;
   (1, 1, 2) 0.498161 0.168376 0.333463;
   (2, 1, 2) 0.38265 0.274876 0.342475;
   (0, 2, 2) 0.128929 0.576996 0.294075;
   (1, 2, 2) 0.305438 0.205807 0.488755;
   (2, 2, 2) 0.377297 0.20942 0.413282;
   (0, 0, 3) 0.398757 0.191859 0.409385;
   (1, 0, 3) 0.405323 0.393609 0.201068;
   (2, 0, 3) 0.431373 0.218648 0.349979;
   (0, 1, 3) 0.639672 0.204482 0.155846;
   (1, 1, 3) 0.178396 0.359749 0.461856;
   (2, 1, 3) 0.0192351 0.435099 0.545665;
   (0, 2, 3) 0.43964 0.426272 0.134087;
   (1, 2, 3) 0.229339 0.16683 0.603831;
   (2, 2, 3) 0.401923 0.125648 0.472429;
}
probability (X14 | X13, X09) {
   (0, 0) 0.182319 0.33342 0.0498488 0.434412;
   (1, 0) 0.151215 0.148679 0.30007 0.400036;
   (0, 1) 0.0516349 0.416591 0.111322 0.420452;
   (1, 1) 0.301564 0.178881 0.142613 0.376942;
   (0, 2) 0.0321222 0.433885 0.333684 0.200308;
   (1, 2) 0.428255 0.397177 0.104021 0.0705463;
}
probability (X09) {
   table 0.234158 0.456142 0.309699;
}
probability (X05) {
   table 0.765613 0.001492 0.232895;
}
probability (X03) {
   table 0.464086 0.298289 0.0387325 0.198892;
}
probability (X04 | X03) {
   (0) 0.122619 0.334976 0.542405;
   (1) 0.194997 0.499926 0.305077;
   (2) 0.512867 0.190733 0.296401;
   (3) 0.768882 0.208977 0.0221416;
}
probability (X10 | X09) {
   (0) 0.521853 0.162736 0.315411;
   (1) 0.00858167 0.486557 0.504861;
   (2) 0.431688 0.269601 0.29871;
}
probability (X02) {
   table 0.472203 0.281254 0.246543;
}
probability (X06 | X05, X03) {
   (0, 0) 0.711255 0.288745;
   (1, 0) 0.566862 0.433138;
   (2, 0) 0.0364681 0.963532;
   (0, 1) 0.255877 0.744123;
   (1, 1) 0.37306 0.62694;
   (2, 1) 0.459824 0.540176;
   (0, 2) 0.208077 0.791923;
   (1, 2) 0.661799 0.338201;
   (2, 2) 0.741132 0.258868;
   (0, 3) 0.464704 0.535296;
   (1, 3) 0.30335 0.69665;
   (2, 3) 0.129525 0.870475;
}
probability (X17 | X14) {
   (0) 0.918744 0.0812559;
   (1) 0.716887 0.283113;
   (2) 0.507108 0.492892;
   (3) 0.0815394 0.918461;
}
probability (X00) {
   table 0.0341509 0.965849;
}
probability (X08 | X07) {
   (0) 0.31319 0.68681;
   (1) 0.787966 0.212034;
   (2) 0.776061 0.223939;
}
probability (X01 | X00) {
   (0) 0.0921584 0.293529 0.614313;
   (1) 0.418785 0.391845 0.18937;
}
probability (X15 | X14) {
   (0) 0.443478 0.117004 0.412122 0.0273963;
   (1) 0.173614 0.26603 0.404724 0.155632;
   (2) 0.261243 0.00473492 0.324038 0.409984;
   (3) 0.370274 0.197597 0.152508 0.279621;
}
probability (X07 | X02, X05) {
   (0, 0) 0.155903 0.336892 0.507206;
   (1, 0) 0.117604 0.463843 0.418553;
   (2, 0) 0.592515 0.406289 0.00119605;
   (0, 1) 0.38557 0.350345 0.264085;
   (1, 1) 0.201142 0.238278 0.56058;
   (2, 1) 0.914966 0.0794785 0.005556;
   (0, 2) 0.188881 0.405772 0.405347;
   (1, 2) 0.223053 0.398928 0.37802;
   (2, 2) 0.169693 0.418784 0.411523;
}

