network "unnamedBN" {
// written by aGrUM 2.0.1
}

variable X10 {
   type discrete[4] {0, 1, 2, 3};
}

variable X11 {
   type discrete[4] {0, 1, 2, 3};
}

variable X08 {
   type discrete[4] {0, 1, 2, 3};
}

variable X17 {
   type discrete[2] {0, 1};
}

variable X09 {
   type discrete[3] {0, 1, 2};
}

variable X13 {
   type discrete[3] {0, 1, 2};
}

variable X01 {
   type discrete[3] {0, 1, 2};
}

variable X14 {
   type discrete[4] {0, 1, 2, 3};
}

variable X18 {
   type discrete[2] {0, 1};
}

variable X07 {
   type discrete[4] {0, 1, 2, 3};
}

variable X12 {
   type discrete[4] {0, 1, 2, 3};
}

variable X02 {
   type discrete[3] {0, 1, 2};
}

variable X16 {
   type discrete[2] {0, 1};
}

variable X06 {
   type discrete[3] {0, 1, 2};
}

variable X19 {
   type discrete[3] {0, 1, 2};
}

variable X05 {
   type discrete[2] {0, 1};
}

variable X04 {
   type discrete[3] {0, 1, 2};
}

variable X15 {
   type discrete[4] {0, 1, 2, 3};
}

variable X00 {
   type discrete[3] {0, 1, 2};
}

variable X03 {
   type discrete[3] {0, 1, 2};
}

probability (X10 | X09) {
   (0) 0.139586 0.346386 0.210273 0.303755;
   (1) 0.0683149 0.0406217 0.693539 0.197525;
   (2) 0.0876121 0.251441 0.298828 0.362119;
}
probability (X11 | X09, X05) {
   (0, 0) 0.205886 0.27723 0.0952792 0.421605;
   (1, 0) 0.217206 0.255989 0.270346 0.256459;
   (2, 0) 0.241312 0.20509 0.179504 0.374094;
   (0, 1) 0.203973 0.213061 0.541408 0.0415588;
   (1, 1) 0.0902924 0.445864 0.277643 0.1862;
   (2, 1) 0.112129 0.296321 0.0434718 0.548079;
}
probability (X08 | X07) {
   (0) 0.104653 0.270537 0.355579 0.269231;
   (1) 0.460195 0.172569 0.189653 0.177584;
   (2) 0.044498 0.491494 0.136653 0.327355;
   (3) 0.460289 0.102771 0.262621 0.174319;
}
probability (X17) {
   table 0.0692747 0.930725;
}
probability (X09) {
   table 0.407431 0.0474697 0.545099;
}
probability (X13 | X12, X00) {
   (0, 0) 0.270154 0.371352 0.358494;
   (1, 0) 0.401978 0.506667 0.0913548;
   (2, 0) 0.0311824 0.185223 0.783595;
   (3, 0) 0.665793 0.321471 0.0127355;
   (0, 1) 0.079025 0.507678 0.413297;
   (1, 1) 0.19354 0.517794 0.288666;
   (2, 1) 0.349633 0.312366 0.338001;
   (3, 1) 0.385698 0.583532 0.0307699;
   (0, 2) 0.512172 0.240699 0.247129;
   (1, 2) 0.277448 0.370538 0.352013;
   (2, 2) 0.652696 0.241677 0.105627;
   (3, 2) 0.615287 0.208911 0.175803;
}
probability (X01 | X00) {
   (0) 0.103236 0.685105 0.211659;
   (1) 0.120025 0.324783 0.555191;
   (2) 0.415522 0.136753 0.447725;
}
probability (X14 | X13, X07, X10) {
   (0, 0, 0) 0.271975 0.134336 0.26546 0.328229;
   (1, 0, 0) 0.39468 0.10319 0.0844657 0.417665;
   (2, 0, 0) 0.304638 0.267798 0.417739 0.00982567;
   (0, 1, 0) 0.310378 0.0934598 0.290754 0.305408;
   (1, 1, 0) 0.421319 0.0330472 0.21331 0.332324;
   (2, 1, 0) 0.0135166 0.325785 0.318334 0.342364;
   (0, 2, 0) 0.265918 0.23982 0.220248 0.274014;
   (1, 2, 0) 0.187546 0.283907 0.219574 0.308973;
   (2, 2, 0) 0.353858 0.0732203 0.300009 0.272912;
   (0, 3, 0) 0.0550983 0.246663 0.507443 0.190795;
   (1, 3, 0) 0.431986 0.156156 0.202952 0.208906;
   (2, 3, 0) 0.618859 0.202384 0.176307 0.00245002;
   (0, 0, 1) 0.245653 0.221436 0.258068 0.274843;
   (1, 0, 1) 0.137539 0.161737 0.228506 0.472219;
   (2, 0, 1) 0.347398 0.336643 0.265634 0.0503246;
   (0, 1, 1) 0.131401 0.381751 0.0268388 0.460008;
   (1, 1, 1) 0.0858068 0.375334 0.33512 0.203739;
   (2, 1, 1) 0.116586 0.307761 0.275351 0.300302;
   (0, 2, 1) 0.427645 0.258752 0.072251 0.241352;
   (1, 2, 1) 0.151468 0.381206 0.125065 0.342262;
   (2, 2, 1) 0.185564 0.171811 0.118937 0.523688;
   (0, 3, 1) 0.263765 0.240104 0.243609 0.252522;
   (1, 3, 1) 0.360419 0.395679 0.157376 0.0865258;
   (2, 3, 1) 0.0270533 0.177762 0.45426 0.340925;
   (0, 0, 2) 0.311931 0.0568136 0.265844 0.365411;
   (1, 0, 2) 0.149453 0.217269 0.0123744 0.620903;
   (2, 0, 2) 0.352617 0.37205 0.0764863 0.198847;
   (0, 1, 2) 0.195957 0.0468295 0.280829 0.476385;
   (1, 1, 2) 0.15071 0.127749 0.427032 0.294509;
   (2, 1, 2) 0.104764 0.326012 0.386792 0.182431;
   (0, 2, 2) 0.283375 0.279138 0.273778 0.163709;
   (1, 2, 2) 0.0626538 0.178907 0.621092 0.137347;
   (2, 2, 2) 0.256085 0.165855 0.299717 0.278342;
   (0, 3, 2) 0.0294745 0.47132 0.0326915 0.466514;
   (1, 3, 2) 0.145707 0.175385 0.353722 0.325186;
   (2, 3, 2) 0.334324 0.337797 0.243727 0.0841515;
   (0, 0, 3) 0.10267 0.0258899 0.310066 0.561374;
   (1, 0, 3) 0.343683 0.038742 0.310856 0.306719;
   (2, 0, 3) 0.410615 0.10056 0.354283 0.134542;
   (0, 1, 3) 0.281963 0.357398 0.0258117 0.334827;
   (1, 1, 3) 0.364075 0.00758134 0.289196 0.339148;
   (2, 1, 3) 0.340507 0.157512 0.187312 0.314668;
   (0, 2, 3) 0.167131 0.240882 0.38083 0.211157;
   (1, 2, 3) 0.101565 0.284597 0.17124 0.442599;
   (2, 2, 3) 0.152096 0.182548 0.563047 0.102308;
   (0, 3, 3) 0.0237122 0.423542 0.254161 0.298584;
   (1, 3, 3) 0.260127 0.280016 0.164032 0.295825;
   (2, 3, 3) 0.0560169 0.276318 0.203405 0.46426;
}
probability (X18 | X17, X12) {
   (0, 0) 0.82149 0.17851;
   (1, 0) 0.385867 0.614133;
   (0, 1) 0.699774 0.300226;
   (1, 1) 0.963404 0.0365958;
   (0, 2) 0.452709 0.547291;
   (1, 2) 0.408861 0.591139;
   (0, 3) 0.187141 0.812859;
   (1, 3) 0.680826 0.319174;
}
probability (X07 | X06) {
   (0) 0.152353 0.420058 0.168808 0.25878;
   (1) 0.130281 0.0315051 0.532634 0.30558;
   (2) 0.0820645 0.372929 0.337317 0.207689;
}
probability (X12 | X04, X11) {
   (0, 0) 0.224903 0.206715 0.306317 0.262065;
   (1, 0) 0.725219 0.0635449 0.180787 0.0304493;
   (2, 0) 0.0662679 0.314289 0.181134 0.438309;
   (0, 1) 0.28707 0.284203 0.138175 0.290552;
   (1, 1) 0.411739 0.164204 0.159721 0.264335;
   (2, 1) 0.185871 0.263438 0.283431 0.267261;
   (0, 2) 0.0336084 0.183568 0.202003 0.58082;
   (1, 2) 0.115778 0.0582693 0.310353 0.5156;
   (2, 2) 0.357286 0.167513 0.063736 0.411464;
   (0, 3) 0.0571264 0.448517 0.109673 0.384683;
   (1, 3) 0.283722 0.237004 0.327548 0.151726;
   (2, 3) 0.574678 0.228262 0.0715324 0.125528;
}
probability (X02 | X01) {
   (0) 0.114334 0.465013 0.420654;
   (1) 0.471672 0.203077 0.325251;
   (2) 0.340474 0.179041 0.480486;
}
probability (X16 | X15) {
   (0) 0.256257 0.743743;
   (1) 0.6601 0.3399;
   (2) 0.363468 0.636532;
   (3) 0.322519 0.677481;
}
probability (X06) {
   table 0.465141 0.416107 0.118752;
}
probability (X19 | X18) {
   (0) 0.238383 0.261018 0.500599;
   (1) 0.0393245 0.23485 0.725826;
}
probability (X05) {
   table 0.608914 0.391086;
}
probability (X04) {
   table 0.778252 0.201595 0.0201527;
}
probability (X15 | X14) {
   (0) 0.27404 0.107017 0.525047 0.0938957;
   (1) 0.351904 0.19294 0.21993 0.235226;
   (2) 0.203733 0.35033 0.29446 0.151478;
   (3) 0.324137 0.0271376 0.0440918 0.604633;
}
probability (X00) {
   table 0.348165 0.340888 0.310947;
}
probability (X03 | X02) {
   (0) 0.356871 0.384763 0.258366;
   (1) 0.215116 0.381193 0.403691;
   (2) 0.0856961 0.747141 0.167163;
}

