network "unnamedBN" {
// written by aGrUM 2.0.1
}

variable X01 {
   type discrete[4] {0, 1, 2, 3};
}

variable X16 {
   type discrete[3] {0, 1, 2};
}

variable X19 {
   type discrete[2] {0, 1};
}

variable X13 {
   type discrete[3] {0, 1, 2};
}

variable X15 {
   type discrete[2] {0, 1};
}

variable X11 {
   type discrete[2] {0, 1};
}

variable X02 {
   type discrete[2] {0, 1};
}

variable X17 {
   type discrete[2] {0, 1};
}

variable X08 {
   type discrete[3] {0, 1, 2};
}

variable X14 {
   type discrete[2] {0, 1};
}

variable X07 {
   type discrete[4] {0, 1, 2, 3};
}

variable X06 {
   type discrete[4] {0, 1, 2, 3};
}

variable X05 {
   type discrete[3] {0, 1, 2};
}

variable X03 {
   type discrete[4] {0, 1, 2, 3};
}

variable X00 {
   type discrete[4] {0, 1, 2, 3};
}

variable X04 {
   type discrete[4] {0, 1, 2, 3};
}

variable X10 {
   type discrete[3] {0, 1, 2};
}

variable X18 {
   type discrete[3] {0, 1, 2};
}

variable X09 {
   type discrete[4] {0, 1, 2, 3};
}

variable X12 {
   type discrete[2] {0, 1};
}

probability (X01 | X00) {
   (0) 0.371544 0.31836 0.0924291 0.217667;
   (1) 0.0628766 0.11658 0.285406 0.535138;
   (2) 0.404253 0.379137 0.0719135 0.144697;
   (3) 0.249167 0.185722 0.385597 0.179514;
}
probability (X16) {
   table 0.467841 0.17956 0.352599;
}
probability (X19 | X18, X11) {
   (0, 0) 0.0805867 0.919413;
   (1, 0) 0.23118 0.76882;
   (2, 0) 0.999629 0.00037117;
   (0, 1) 0.57135 0.42865;
   (1, 1) 0.479387 0.520613;
   (2, 1) 0.506447 0.493553;
}
probability (X13 | X12) {
   (0) 0.528526 0.250189 0.221285;
   (1) 0.454716 0.0661199 0.479164;
}
probability (X15) {
   table 0.587465 0.412535;
}
probability (X11) {
   table 0.640595 0.359405;
}
probability (X02 | X01) {
   (0) 0.415635 0.584365;
   (1) 0.702535 0.297465;
   (2) 0.213179 0.786821;
   (3) 0.539706 0.460294;
}
probability (X17 | X16) {
   (0) 0.56237 0.43763;
   (1) 0.491046 0.508954;
   (2) 0.768175 0.231825;
}
probability (X08) {
   table 0.25981 0.446799 0.29339;
}
probability (X14 | X13) {
   (0) 0.534482 0.465518;
   (1) 0.45213 0.54787;
   (2) 0.249737 0.750263;
}
probability (X07) {
   table 0.338821 0.274756 0.133386 0.253037;
}
probability (X06) {
   table 0.449619 0.0278196 0.256735 0.265827;
}
probability (X05) {
   table 0.455083 0.320225 0.224692;
}
probability (X03) {
   table 0.108788 0.0758887 0.376727 0.438596;
}
probability (X00) {
   table 0.0234896 0.185599 0.30909 0.481822;
}
probability (X04 | X03) {
   (0) 0.0249912 0.0838548 0.771089 0.120065;
   (1) 0.0232662 0.43586 0.0201346 0.520739;
   (2) 0.336734 0.204223 0.251201 0.207842;
   (3) 0.335628 0.287904 0.0141292 0.362339;
}
probability (X10 | X02, X08) {
   (0, 0) 0.433801 0.0250201 0.541179;
   (1, 0) 0.58621 0.287316 0.126473;
   (0, 1) 0.556395 0.39889 0.0447155;
   (1, 1) 0.338039 0.114267 0.547694;
   (0, 2) 0.124569 0.246137 0.629295;
   (1, 2) 0.750179 0.224212 0.0256088;
}
probability (X18 | X15, X17, X03) {
   (0, 0, 0) 0.461347 0.411302 0.127351;
   (1, 0, 0) 0.454727 0.192797 0.352476;
   (0, 1, 0) 0.29389 0.411183 0.294927;
   (1, 1, 0) 0.441321 0.0436587 0.51502;
   (0, 0, 1) 0.376384 0.433174 0.190442;
   (1, 0, 1) 0.438309 0.452624 0.109067;
   (0, 1, 1) 0.458804 0.0445546 0.496641;
   (1, 1, 1) 0.445686 0.342553 0.211762;
   (0, 0, 2) 0.295606 0.1679 0.536493;
   (1, 0, 2) 0.428489 0.288513 0.282998;
   (0, 1, 2) 0.333472 0.254107 0.412421;
   (1, 1, 2) 0.565889 0.198894 0.235217;
   (0, 0, 3) 0.492 0.0265192 0.481481;
   (1, 0, 3) 0.150469 0.278549 0.570983;
   (0, 1, 3) 0.0750499 0.497947 0.427003;
   (1, 1, 3) 0.362695 0.253173 0.384133;
}
probability (X09 | X08, X05, X06) {
   (0, 0, 0) 0.226235 0.315454 0.0885666 0.369744;
   (1, 0, 0) 0.21069 0.14912 0.32826 0.31193;
   (2, 0, 0) 0.317268 0.225689 0.131992 0.325051;
   (0, 1, 0) 0.468649 0.0845082 0.314482 0.13236;
   (1, 1, 0) 0.177679 0.164938 0.44253 0.214852;
   (2, 1, 0) 0.0989399 0.289566 0.412786 0.198708;
   (0, 2, 0) 0.319982 0.201859 0.254319 0.22384;
   (1, 2, 0) 0.255477 0.362662 0.204941 0.17692;
   (2, 2, 0) 0.070864 0.409037 0.292261 0.227838;
   (0, 0, 1) 0.169721 0.24506 0.323603 0.261616;
   (1, 0, 1) 0.169609 0.178758 0.0910565 0.560576;
   (2, 0, 1) 0.158486 0.274813 0.250045 0.316656;
   (0, 1, 1) 0.364375 0.412275 0.133961 0.0893895;
   (1, 1, 1) 0.0644086 0.00834834 0.522365 0.404878;
   (2, 1, 1) 0.348902 0.329869 0.319564 0.00166433;
   (0, 2, 1) 0.0570836 0.47763 0.150901 0.314386;
   (1, 2, 1) 0.43057 0.183403 0.212331 0.173696;
   (2, 2, 1) 0.183616 0.318001 0.179719 0.318664;
   (0, 0, 2) 0.265602 0.255956 0.0499582 0.428483;
   (1, 0, 2) 0.187723 0.324023 0.285588 0.202666;
   (2, 0, 2) 0.353379 0.2448 0.0471385 0.354683;
   (0, 1, 2) 0.298321 0.212004 0.0410462 0.448629;
   (1, 1, 2) 0.356853 0.221209 0.354967 0.0669715;
   (2, 1, 2) 0.412148 0.404511 0.0393185 0.144023;
   (0, 2, 2) 0.315747 0.176203 0.200128 0.307922;
   (1, 2, 2) 0.13004 0.592137 0.0503964 0.227426;
   (2, 2, 2) 0.40718 0.0908311 0.123691 0.378297;
   (0, 0, 3) 0.494619 0.050497 0.132992 0.321892;
   (1, 0, 3) 0.119407 0.324959 0.158104 0.39753;
   (2, 0, 3) 0.53219 0.0380786 0.193972 0.23576;
   (0, 1, 3) 0.307079 0.179266 0.299591 0.214064;
   (1, 1, 3) 0.317162 0.375354 0.116246 0.191238;
   (2, 1, 3) 0.303467 0.284851 0.319268 0.0924135;
   (0, 2, 3) 0.082073 0.231959 0.311968 0.374;
   (1, 2, 3) 0.300735 0.200549 0.0029314 0.495785;
   (2, 2, 3) 0.174023 0.32174 0.278284 0.225953;
}
probability (X12 | X11, X03, X07, X01) {
   (0, 0, 0, 0) 0.371303 0.628697;
   (1, 0, 0, 0) 0.376184 0.623816;
   (0, 1, 0, 0) 0.996855 0.00314531;
   (1, 1, 0, 0) 0.650384 0.349616;
   (0, 2, 0, 0) 0.349976 0.650024;
   (1, 2, 0, 0) 0.48357 0.51643;
   (0, 3, 0, 0) 0.319483 0.680517;
   (1, 3, 0, 0) 0.594253 0.405747;
   (0, 0, 1, 0) 0.528975 0.471025;
   (1, 0, 1, 0) 0.491673 0.508327;
   (0, 1, 1, 0) 0.482739 0.517261;
   (1, 1, 1, 0) 0.488342 0.511658;
   (0, 2, 1, 0) 0.610616 0.389384;
   (1, 2, 1, 0) 0.495744 0.504256;
   (0, 3, 1, 0) 0.643695 0.356305;
   (1, 3, 1, 0) 0.708259 0.291741;
   (0, 0, 2, 0) 0.392022 0.607978;
   (1, 0, 2, 0) 0.540266 0.459734;
   (0, 1, 2, 0) 0.481695 0.518305;
   (1, 1, 2, 0) 0.478478 0.521522;
   (0, 2, 2, 0) 0.756217 0.243783;
   (1, 2, 2, 0) 0.412264 0.587736;
   (0, 3, 2, 0) 0.494488 0.505512;
   (1, 3, 2, 0) 0.536897 0.463103;
   (0, 0, 3, 0) 0.353266 0.646734;
   (1, 0, 3, 0) 0.181602 0.818398;
   (0, 1, 3, 0) 0.706608 0.293392;
   (1, 1, 3, 0) 0.199732 0.800268;
   (0, 2, 3, 0) 0.484064 0.515936;
   (1, 2, 3, 0) 0.417951 0.582049;
   (0, 3, 3, 0) 0.35641 0.64359;
   (1, 3, 3, 0) 0.345716 0.654284;
   (0, 0, 0, 1) 0.234825 0.765175;
   (1, 0, 0, 1) 0.483821 0.516179;
   (0, 1, 0, 1) 0.797616 0.202384;
   (1, 1, 0, 1) 0.578865 0.421135;
   (0, 2, 0, 1) 0.034283 0.965717;
   (1, 2, 0, 1) 0.680485 0.319515;
   (0, 3, 0, 1) 0.209714 0.790286;
   (1, 3, 0, 1) 0.504477 0.495523;
   (0, 0, 1, 1) 0.222874 0.777126;
   (1, 0, 1, 1) 0.517063 0.482937;
   (0, 1, 1, 1) 0.179366 0.820634;
   (1, 1, 1, 1) 0.609286 0.390714;
   (0, 2, 1, 1) 0.232423 0.767577;
   (1, 2, 1, 1) 0.100874 0.899126;
   (0, 3, 1, 1) 0.25343 0.74657;
   (1, 3, 1, 1) 0.662307 0.337693;
   (0, 0, 2, 1) 0.167989 0.832011;
   (1, 0, 2, 1) 0.341405 0.658595;
   (0, 1, 2, 1) 0.644754 0.355246;
   (1, 1, 2, 1) 0.322932 0.677068;
   (0, 2, 2, 1) 0.402228 0.597772;
   (1, 2, 2, 1) 0.795477 0.204523;
   (0, 3, 2, 1) 0.539485 0.460515;
   (1, 3, 2, 1) 0.469959 0.530041;
   (0, 0, 3, 1) 0.37088 0.62912;
   (1, 0, 3, 1) 0.530021 0.469979;
   (0, 1, 3, 1) 0.887914 0.112086;
   (1, 1, 3, 1) 0.378372 0.621628;
   (0, 2, 3, 1) 0.393164 0.606836;
   (1, 2, 3, 1) 0.685145 0.314855;
   (0, 3, 3, 1) 0.7816 0.2184;
   (1, 3, 3, 1) 0.830783 0.169217;
   (0, 0, 0, 2) 0.0364758 0.963524;
   (1, 0, 0, 2) 0.612191 0.387809;
   (0, 1, 0, 2) 0.69635 0.30365;
   (1, 1, 0, 2) 0.891884 0.108116;
   (0, 2, 0, 2) 0.889993 0.110007;
   (1, 2, 0, 2) 0.0161668 0.983833;
   (0, 3, 0, 2) 0.125385 0.874615;
   (1, 3, 0, 2) 0.390827 0.609173;
   (0, 0, 1, 2) 0.197276 0.802724;
   (1, 0, 1, 2) 0.631276 0.368724;
   (0, 1, 1, 2) 0.398831 0.601169;
   (1, 1, 1, 2) 0.718502 0.281498;
   (0, 2, 1, 2) 0.152171 0.847829;
   (1, 2, 1, 2) 0.813009 0.186991;
   (0, 3, 1, 2) 0.438342 0.561658;
   (1, 3, 1, 2) 0.586614 0.413386;
   (0, 0, 2, 2) 0.625059 0.374941;
   (1, 0, 2, 2) 0.227778 0.772222;
   (0, 1, 2, 2) 0.561292 0.438708;
   (1, 1, 2, 2) 0.624169 0.375831;
   (0, 2, 2, 2) 0.827724 0.172276;
   (1, 2, 2, 2) 0.184352 0.815648;
   (0, 3, 2, 2) 0.618622 0.381378;
   (1, 3, 2, 2) 0.369271 0.630729;
   (0, 0, 3, 2) 0.713734 0.286266;
   (1, 0, 3, 2) 0.00892822 0.991072;
   (0, 1, 3, 2) 0.582369 0.417631;
   (1, 1, 3, 2) 0.191599 0.808401;
   (0, 2, 3, 2) 0.61071 0.38929;
   (1, 2, 3, 2) 0.610154 0.389846;
   (0, 3, 3, 2) 0.449659 0.550341;
   (1, 3, 3, 2) 0.724405 0.275595;
   (0, 0, 0, 3) 0.692994 0.307006;
   (1, 0, 0, 3) 0.0391991 0.960801;
   (0, 1, 0, 3) 0.995698 0.00430194;
   (1, 1, 0, 3) 0.326196 0.673804;
   (0, 2, 0, 3) 0.765533 0.234467;
   (1, 2, 0, 3) 0.382679 0.617321;
   (0, 3, 0, 3) 0.59048 0.40952;
   (1, 3, 0, 3) 0.350576 0.649424;
   (0, 0, 1, 3) 0.201788 0.798212;
   (1, 0, 1, 3) 0.440005 0.559995;
   (0, 1, 1, 3) 0.257842 0.742158;
   (1, 1, 1, 3) 0.0868897 0.91311;
   (0, 2, 1, 3) 0.749719 0.250281;
   (1, 2, 1, 3) 0.453485 0.546515;
   (0, 3, 1, 3) 0.119693 0.880307;
   (1, 3, 1, 3) 0.5675 0.4325;
   (0, 0, 2, 3) 0.33222 0.66778;
   (1, 0, 2, 3) 0.597564 0.402436;
   (0, 1, 2, 3) 0.534317 0.465683;
   (1, 1, 2, 3) 0.734106 0.265894;
   (0, 2, 2, 3) 0.334197 0.665803;
   (1, 2, 2, 3) 0.466946 0.533054;
   (0, 3, 2, 3) 0.64159 0.35841;
   (1, 3, 2, 3) 0.997011 0.00298911;
   (0, 0, 3, 3) 0.285779 0.714221;
   (1, 0, 3, 3) 0.756003 0.243997;
   (0, 1, 3, 3) 0.777615 0.222385;
   (1, 1, 3, 3) 0.364357 0.635643;
   (0, 2, 3, 3) 0.0945572 0.905443;
   (1, 2, 3, 3) 0.167569 0.832431;
   (0, 3, 3, 3) 0.204059 0.795941;
   (1, 3, 3, 3) 0.772262 0.227738;
}

