network "unnamedBN" {
// written by aGrUM 2.0.1
}

variable X08 {
   type discrete[3] {0, 1, 2};
}

variable X14 {
   type discrete[4] {0, 1, 2, 3};
}

variable X06 {
   type discrete[3] {0, 1, 2};
}

variable X18 {
   type discrete[4] {0, 1, 2, 3};
}

variable X15 {
   type discrete[2] {0, 1};
}

variable X13 {
   type discrete[2] {0, 1};
}

variable X12 {
   type discrete[2] {0, 1};
}

variable X01 {
   type discrete[3] {0, 1, 2};
}

variable X11 {
   type discrete[3] {0, 1, 2};
}

variable X07 {
   type discrete[3] {0, 1, 2};
}

variable X10 {
   type discrete[3] {0, 1, 2};
}

variable X05 {
   type discrete[4] {0, 1, 2, 3};
}

variable X02 {
   type discrete[2] {0, 1};
}

variable X04 {
   type discrete[4] {0, 1, 2, 3};
}

variable X00 {
   type discrete[3] {0, 1, 2};
}

variable X09 {
   type discrete[4] {0, 1, 2, 3};
}

variable X19 {
   type discrete[3] {0, 1, 2};
}

variable X03 {
   type discrete[2] {0, 1};
}

variable X16 {
   type discrete[4] {0, 1, 2, 3};
}

variable X17 {
   type discrete[3] {0, 1, 2};
}

probability (X08 | X07) {
   (0) 0.16429 0.377875 0.457835;
   (1) 0.253772 0.35374 0.392489;
   (2) 0.429361 0.157469 0.41317;
}
probability (X14) {
   table 0.0510021 0.0380825 0.379738 0.531177;
}
probability (X06 | X00, X05) {
   (0, 0) 0.110704 0.644538 0.244758;
   (1, 0) 0.568808 0.294379 0.136813;
   (2, 0) 0.0839956 0.625072 0.290932;
   (0, 1) 0.437344 0.396012 0.166644;
   (1, 1) 0.276291 0.302006 0.421703;
   (2, 1) 0.180539 0.261674 0.557787;
   (0, 2) 0.102689 0.315939 0.581372;
   (1, 2) 0.408401 0.0402473 0.551352;
   (2, 2) 0.375288 0.269442 0.35527;
   (0, 3) 0.345627 0.249344 0.405029;
   (1, 3) 0.396674 0.115758 0.487568;
   (2, 3) 0.149397 0.487807 0.362795;
}
probability (X18 | X13, X17) {
   (0, 0) 0.0844308 0.0263775 0.481239 0.407953;
   (1, 0) 0.0940977 0.375453 0.227331 0.303118;
   (0, 1) 0.256624 0.307709 0.310917 0.124751;
   (1, 1) 0.168843 0.00141221 0.71567 0.114075;
   (0, 2) 0.25213 0.580607 0.133035 0.0342272;
   (1, 2) 0.0210181 0.45069 0.18654 0.341751;
}
probability (X15 | X14) {
   (0) 0.610237 0.389763;
   (1) 0.456768 0.543232;
   (2) 0.469647 0.530353;
   (3) 0.276632 0.723368;
}
probability (X13) {
   table 0.437364 0.562636;
}
probability (X12 | X11, X03) {
   (0, 0) 0.849978 0.150022;
   (1, 0) 0.218029 0.781971;
   (2, 0) 0.792236 0.207764;
   (0, 1) 0.670872 0.329128;
   (1, 1) 0.542926 0.457074;
   (2, 1) 0.725709 0.274291;
}
probability (X01 | X00) {
   (0) 0.0389321 0.553349 0.407718;
   (1) 0.00905276 0.0251768 0.96577;
   (2) 0.329324 0.544272 0.126405;
}
probability (X11) {
   table 0.311834 0.101031 0.587135;
}
probability (X07) {
   table 0.402947 0.476359 0.120694;
}
probability (X10 | X00, X09) {
   (0, 0) 0.0921589 0.658206 0.249635;
   (1, 0) 0.135532 0.635591 0.228876;
   (2, 0) 0.484021 0.242113 0.273865;
   (0, 1) 0.247204 0.465403 0.287393;
   (1, 1) 0.583454 0.104894 0.311652;
   (2, 1) 0.149541 0.438268 0.41219;
   (0, 2) 0.788975 0.0941762 0.116849;
   (1, 2) 0.173823 0.35245 0.473727;
   (2, 2) 0.256503 0.295526 0.44797;
   (0, 3) 0.0521283 0.766288 0.181584;
   (1, 3) 0.276693 0.518977 0.20433;
   (2, 3) 0.0274808 0.744606 0.227913;
}
probability (X05) {
   table 0.13689 0.101528 0.368769 0.392813;
}
probability (X02 | X01) {
   (0) 0.261457 0.738543;
   (1) 0.470824 0.529176;
   (2) 0.738338 0.261662;
}
probability (X04) {
   table 0.188567 0.412734 0.256962 0.141737;
}
probability (X00) {
   table 0.270686 0.501442 0.227872;
}
probability (X09 | X05, X07) {
   (0, 0) 0.185324 0.293253 0.277041 0.244382;
   (1, 0) 0.0702609 0.244504 0.38822 0.297015;
   (2, 0) 0.413501 0.386105 0.0765725 0.123822;
   (3, 0) 0.595844 0.0477287 0.172557 0.183871;
   (0, 1) 0.395422 0.0218306 0.401263 0.181484;
   (1, 1) 0.275892 0.241278 0.41289 0.0699404;
   (2, 1) 0.183835 0.199253 0.349392 0.26752;
   (3, 1) 0.161147 0.248646 0.288995 0.301212;
   (0, 2) 0.0708804 0.311476 0.132857 0.484787;
   (1, 2) 0.367624 0.233064 0.308574 0.0907384;
   (2, 2) 0.248644 0.498372 0.13533 0.117654;
   (3, 2) 0.150075 0.236818 0.17276 0.440347;
}
probability (X19 | X14) {
   (0) 0.117261 0.0781046 0.804635;
   (1) 0.226946 0.509729 0.263325;
   (2) 0.609891 0.339794 0.0503152;
   (3) 0.411096 0.275001 0.313903;
}
probability (X03 | X01) {
   (0) 0.467111 0.532889;
   (1) 0.0483177 0.951682;
   (2) 0.607689 0.392311;
}
probability (X16 | X15, X00) {
   (0, 0) 0.225365 0.242532 0.312839 0.219264;
   (1, 0) 0.0707748 0.242318 0.303501 0.383406;
   (0, 1) 0.255422 0.333505 0.267643 0.143429;
   (1, 1) 0.313796 0.0356841 0.285962 0.364558;
   (0, 2) 0.0375183 0.283674 0.420165 0.258643;
   (1, 2) 0.40914 0.129184 0.11657 0.345106;
}
probability (X17 | X04, X16) {
   (0, 0) 0.0655244 0.408108 0.526368;
   (1, 0) 0.239924 0.470622 0.289454;
   (2, 0) 0.251325 0.340547 0.408129;
   (3, 0) 0.513675 0.327984 0.158341;
   (0, 1) 0.353945 0.361154 0.284902;
   (1, 1) 0.298569 0.566286 0.135145;
   (2, 1) 0.187908 0.165073 0.647019;
   (3, 1) 0.537725 0.175864 0.286412;
   (0, 2) 0.295949 0.229891 0.47416;
   (1, 2) 0.398707 0.07472 0.526573;
   (2, 2) 0.321258 0.356169 0.322574;
   (3, 2) 0.404648 0.375222 0.22013;
   (0, 3) 0.301045 0.310971 0.387984;
   (1, 3) 0.421105 0.362625 0.21627;
   (2, 3) 0.338451 0.398213 0.263336;
   (3, 3) 0.0246072 0.721778 0.253615;
}

