network "unnamedBN" {
// written by aGrUM 2.0.1
}

variable X05 {
   type discrete[2] {0, 1};
}

variable X13 {
   type discrete[3] {0, 1, 2};
}

variable X09 {
   type discrete[4] {0, 1, 2, 3};
}

variable X11 {
   type discrete[4] {0, 1, 2, 3};
}

variable X17 {
   type discrete[3] {0, 1, 2};
}

variable X08 {
   type discrete[3] {0, 1, 2};
}

variable X12 {
   type discrete[2] {0, 1};
}

variable X04 {
   type discrete[2] {0, 1};
}

variable X15 {
   type discrete[3] {0, 1, 2};
}

variable X07 {
   type discrete[2] {0, 1};
}

variable X01 {
   type discrete[4] {0, 1, 2, 3};
}

variable X02 {
   type discrete[2] {0, 1};
}

variable X10 {
   type discrete[4] {0, 1, 2, 3};
}

variable X06 {
   type discrete[3] {0, 1, 2};
}

variable X19 {
   type discrete[3] {0, 1, 2};
}

variable X16 {
   type discrete[3] {0, 1, 2};
}

variable X03 {
   type discrete[4] {0, 1, 2, 3};
}

variable X14 {
   type discrete[3] {0, 1, 2};
}

variable X18 {
   type discrete[3] {0, 1, 2};
}

variable X00 {
   type discrete[3] {0, 1, 2};
}

probability (X05 | X04) {
   (0) 0.390593 0.609407;
   (1) 0.748643 0.251357;
}
probability (X13) {
   table 0.137797 0.422644 0.439559;
}
probability (X09 | X08) {
   (0) 0.152307 0.278721 0.209849 0.359124;
   (1) 0.0804138 0.274311 0.348747 0.296528;
   (2) 0.158818 0.139906 0.333309 0.367966;
}
probability (X11 | X08) {
   (0) 0.128187 0.225355 0.319562 0.326896;
   (1) 0.195074 0.393027 0.318974 0.0929255;
   (2) 0.0120665 0.255555 0.259825 0.472553;
}
probability (X17 | X15) {
   (0) 0.375629 0.267386 0.356985;
   (1) 0.296446 0.489286 0.214269;
   (2) 0.264274 0.220184 0.515542;
}
probability (X08) {
   table 0.401412 0.446994 0.151594;
}
probability (X12 | X11, X02) {
   (0, 0) 0.153723 0.846277;
   (1, 0) 0.925242 0.0747581;
   (2, 0) 0.488059 0.511941;
   (3, 0) 0.435306 0.564694;
   (0, 1) 0.602058 0.397942;
   (1, 1) 0.876846 0.123154;
   (2, 1) 0.582698 0.417302;
   (3, 1) 0.482334 0.517666;
}
probability (X04) {
   table 0.261863 0.738137;
}
probability (X15 | X13) {
   (0) 0.478766 0.303676 0.217558;
   (1) 0.514434 0.461202 0.0243639;
   (2) 0.17761 0.482683 0.339707;
}
probability (X07 | X04, X00) {
   (0, 0) 0.611249 0.388751;
   (1, 0) 0.0527653 0.947235;
   (0, 1) 0.424206 0.575794;
   (1, 1) 0.176866 0.823134;
   (0, 2) 0.425683 0.574317;
   (1, 2) 0.432469 0.567531;
}
probability (X01) {
   table 0.0737077 0.262597 0.152837 0.510858;
}
probability (X02 | X00, X01) {
   (0, 0) 0.518544 0.481456;
   (1, 0) 0.266338 0.733662;
   (2, 0) 0.305968 0.694032;
   (0, 1) 0.151113 0.848887;
   (1, 1) 0.606779 0.393221;
   (2, 1) 0.185005 0.814995;
   (0, 2) 0.291403 0.708597;
   (1, 2) 0.0689136 0.931086;
   (2, 2) 0.362164 0.637836;
   (0, 3) 0.404768 0.595232;
   (1, 3) 0.033413 0.966587;
   (2, 3) 0.939759 0.0602414;
}
probability (X10 | X09) {
   (0) 0.314116 0.191785 0.219251 0.274849;
   (1) 0.416373 0.0151226 0.438586 0.129918;
   (2) 0.31105 0.0673818 0.563825 0.0577433;
   (3) 0.344569 0.175986 0.106559 0.372886;
}
probability (X06 | X05) {
   (0) 0.279089 0.411379 0.309532;
   (1) 0.245735 0.424575 0.32969;
}
probability (X19 | X17, X02) {
   (0, 0) 0.476267 0.305648 0.218085;
   (1, 0) 0.585016 0.129365 0.285619;
   (2, 0) 0.0588763 0.374817 0.566306;
   (0, 1) 0.446575 0.120159 0.433266;
   (1, 1) 0.544721 0.0206207 0.434658;
   (2, 1) 0.249977 0.164978 0.585045;
}
probability (X16 | X08, X15) {
   (0, 0) 0.258881 0.261426 0.479693;
   (1, 0) 0.0653188 0.803418 0.131263;
   (2, 0) 0.386754 0.320779 0.292467;
   (0, 1) 0.40706 0.300759 0.292182;
   (1, 1) 0.471553 0.0857269 0.44272;
   (2, 1) 0.204109 0.385142 0.410749;
   (0, 2) 0.584917 0.145347 0.269736;
   (1, 2) 0.215833 0.74721 0.036957;
   (2, 2) 0.544145 0.10767 0.348184;
}
probability (X03 | X02) {
   (0) 0.303933 0.187525 0.00226069 0.506282;
   (1) 0.256955 0.438699 0.136371 0.167974;
}
probability (X14 | X13) {
   (0) 0.651795 0.330487 0.0177184;
   (1) 0.412457 0.12485 0.462693;
   (2) 0.494684 0.485226 0.0200899;
}
probability (X18 | X17) {
   (0) 0.488043 0.231849 0.280108;
   (1) 0.272547 0.375445 0.352008;
   (2) 0.217502 0.398139 0.384359;
}
probability (X00) {
   table 0.12337 0.510696 0.365935;
}

