network "unnamedBN" {
// written by aGrUM 2.0.1
}

variable X21 {
   type discrete[4] {0, 1, 2, 3};
}

variable X27 {
   type discrete[4] {0, 1, 2, 3};
}

variable X25 {
   type discrete[4] {0, 1, 2, 3};
}

variable X26 {
   type discrete[2] {0, 1};
}

variable X01 {
   type discrete[3] {0, 1, 2};
}

variable X11 {
   type discrete[2] {0, 1};
}

variable X13 {
   type discrete[4] {0, 1, 2, 3};
}

variable X29 {
   type discrete[4] {0, 1, 2, 3};
}

variable X20 {
   type discrete[4] {0, 1, 2, 3};
}

variable X16 {
   type discrete[3] {0, 1, 2};
}

variable X06 {
   type discrete[4] {0, 1, 2, 3};
}

variable X04 {
   type discrete[2] {0, 1};
}

variable X03 {
   type discrete[3] {0, 1, 2};
}

variable X10 {
   type discrete[3] {0, 1, 2};
}

variable X15 {
   type discrete[3] {0, 1, 2};
}

variable X09 {
   type discrete[4] {0, 1, 2, 3};
}

variable X08 {
   type discrete[4] {0, 1, 2, 3};
}

variable X14 {
   type discrete[2] {0, 1};
}

variable X17 {
   type discrete[2] {0, 1};
}

variable X19 {
   type discrete[3] {0, 1, 2};
}

variable X28 {
   type discrete[4] {0, 1, 2, 3};
}

variable X12 {
   type discrete[4] {0, 1, 2, 3};
}

variable X18 {
   type discrete[2] {0, 1};
}

variable X07 {
   type discrete[3] {0, 1, 2};
}

variable X23 {
   type discrete[2] {0, 1};
}

variable X05 {
   type discrete[3] {0, 1, 2};
}

variable X24 {
   type discrete[3] {0, 1, 2};
}

variable X02 {
   type discrete[3] {0, 1, 2};
}

variable X00 {
   type discrete[4] {0, 1, 2, 3};
}

variable X22 {
   type discrete[2] {0, 1};
}

probability (X21 | X20, X00) {
   (0, 0) 0.12539 0.425957 0.194523 0.25413;
   (1, 0) 0.584051 0.309221 0.0987362 0.00799128;
   (2, 0) 0.394273 0.123222 0.0710427 0.411463;
   (3, 0) 0.176312 0.328381 0.220973 0.274334;
   (0, 1) 0.256852 0.387635 0.00557423 0.349939;
   (1, 1) 0.236879 0.199879 0.308697 0.254544;
   (2, 1) 0.39545 0.320404 0.246736 0.0374095;
   (3, 1) 0.415406 0.316426 0.0560654 0.212103;
   (0, 2) 0.121719 0.316652 0.263362 0.298266;
   (1, 2) 0.255717 0.0628394 0.315635 0.365809;
   (2, 2) 0.241506 0.300071 0.0420703 0.416352;
   (3, 2) 0.306861 0.057982 0.239953 0.395203;
   (0, 3) 0.0843101 0.264026 0.433489 0.218176;
   (1, 3) 0.155273 0.254069 0.45441 0.136247;
   (2, 3) 0.295337 0.265864 0.232655 0.206143;
   (3, 3) 0.00631536 0.341957 0.421976 0.229752;
}
probability (X27) {
   table 0.308905 0.296586 0.214934 0.179574;
}
probability (X25) {
   table 0.0376771 0.334784 0.254292 0.373248;
}
probability (X26 | X09, X25, X01) {
   (0, 0, 0) 0.206757 0.793243;
   (1, 0, 0) 0.628005 0.371995;
   (2, 0, 0) 0.807335 0.192665;
   (3, 0, 0) 0.944103 0.0558968;
   (0, 1, 0) 0.470676 0.529324;
   (1, 1, 0) 0.479917 0.520083;
   (2, 1, 0) 0.427316 0.572684;
   (3, 1, 0) 0.530195 0.469805;
   (0, 2, 0) 0.359946 0.640054;
   (1, 2, 0) 0.67389 0.32611;
   (2, 2, 0) 0.865022 0.134978;
   (3, 2, 0) 0.431314 0.568686;
   (0, 3, 0) 0.930989 0.0690115;
   (1, 3, 0) 0.523597 0.476403;
   (2, 3, 0) 0.975458 0.0245417;
   (3, 3, 0) 0.477604 0.522396;
   (0, 0, 1) 0.362353 0.637647;
   (1, 0, 1) 0.30589 0.69411;
   (2, 0, 1) 0.486943 0.513057;
   (3, 0, 1) 0.735665 0.264335;
   (0, 1, 1) 0.340107 0.659893;
   (1, 1, 1) 0.916201 0.0837988;
   (2, 1, 1) 0.0662946 0.933705;
   (3, 1, 1) 0.387406 0.612594;
   (0, 2, 1) 0.00994959 0.99005;
   (1, 2, 1) 0.323255 0.676745;
   (2, 2, 1) 0.624547 0.375453;
   (3, 2, 1) 0.0638303 0.93617;
   (0, 3, 1) 0.485671 0.514329;
   (1, 3, 1) 0.615068 0.384932;
   (2, 3, 1) 0.224254 0.775746;
   (3, 3, 1) 0.585001 0.414999;
   (0, 0, 2) 0.512176 0.487824;
   (1, 0, 2) 0.411316 0.588684;
   (2, 0, 2) 0.736391 0.263609;
   (3, 0, 2) 0.221961 0.778039;
   (0, 1, 2) 0.79534 0.20466;
   (1, 1, 2) 0.252828 0.747172;
   (2, 1, 2) 0.270995 0.729005;
   (3, 1, 2) 0.672296 0.327704;
   (0, 2, 2) 0.74178 0.25822;
   (1, 2, 2) 0.518422 0.481578;
   (2, 2, 2) 0.648812 0.351188;
   (3, 2, 2) 0.700169 0.299831;
   (0, 3, 2) 0.63322 0.36678;
   (1, 3, 2) 0.728277 0.271723;
   (2, 3, 2) 0.471197 0.528803;
   (3, 3, 2) 0.554868 0.445132;
}
probability (X01 | X00) {
   (0) 0.539561 0.0897357 0.370703;
   (1) 0.329641 0.244323 0.426036;
   (2) 0.148972 0.445986 0.405042;
   (3) 0.059845 0.227036 0.713119;
}
probability (X11 | X10) {
   (0) 0.257885 0.742115;
   (1) 0.788645 0.211355;
   (2) 0.567029 0.432971;
}
probability (X13 | X10) {
   (0) 0.153424 0.247254 0.304768 0.294553;
   (1) 0.0367488 0.400761 0.321659 0.240831;
   (2) 0.0767574 0.341023 0.409567 0.172653;
}
probability (X29 | X28) {
   (0) 0.0239462 0.260398 0.563748 0.151907;
   (1) 0.217693 0.111833 0.301277 0.369197;
   (2) 0.108947 0.195486 0.206278 0.48929;
   (3) 0.264931 0.25826 0.170401 0.306408;
}
probability (X20 | X16) {
   (0) 0.261178 0.315918 0.396745 0.026159;
   (1) 0.309864 0.30721 0.104354 0.278572;
   (2) 0.0168272 0.419353 0.103176 0.460644;
}
probability (X16) {
   table 0.440567 0.254807 0.304625;
}
probability (X06 | X04, X05) {
   (0, 0) 0.192025 0.124676 0.280594 0.402705;
   (1, 0) 0.0792744 0.523066 0.169628 0.228032;
   (0, 1) 0.236985 0.421628 0.244942 0.0964455;
   (1, 1) 0.11168 0.0934079 0.421144 0.373768;
   (0, 2) 0.269368 0.317385 0.277307 0.135941;
   (1, 2) 0.381595 0.201775 0.271849 0.14478;
}
probability (X04 | X03) {
   (0) 0.396181 0.603819;
   (1) 0.884819 0.115181;
   (2) 0.820657 0.179343;
}
probability (X03 | X02) {
   (0) 0.26443 0.621937 0.113634;
   (1) 0.49408 0.146878 0.359042;
   (2) 0.42766 0.491782 0.0805579;
}
probability (X10) {
   table 0.417117 0.132932 0.449952;
}
probability (X15 | X10, X01, X09) {
   (0, 0, 0) 0.529702 0.417424 0.052874;
   (1, 0, 0) 0.0194065 0.100761 0.879833;
   (2, 0, 0) 0.491841 0.448123 0.0600358;
   (0, 1, 0) 0.33855 0.372834 0.288616;
   (1, 1, 0) 0.884682 0.0998363 0.0154812;
   (2, 1, 0) 0.439546 0.193819 0.366635;
   (0, 2, 0) 0.158243 0.00394835 0.837808;
   (1, 2, 0) 0.405221 0.317578 0.277201;
   (2, 2, 0) 0.422265 0.190957 0.386778;
   (0, 0, 1) 0.0906789 0.243338 0.665983;
   (1, 0, 1) 0.66486 0.31397 0.0211691;
   (2, 0, 1) 0.277824 0.405791 0.316386;
   (0, 1, 1) 0.162065 0.430211 0.407723;
   (1, 1, 1) 0.0227761 0.311526 0.665698;
   (2, 1, 1) 0.33105 0.268894 0.400057;
   (0, 2, 1) 0.309811 0.583751 0.106438;
   (1, 2, 1) 0.185038 0.526506 0.288456;
   (2, 2, 1) 0.577891 0.357839 0.0642695;
   (0, 0, 2) 0.239958 0.0839902 0.676052;
   (1, 0, 2) 0.416232 0.146829 0.436939;
   (2, 0, 2) 0.515127 0.101359 0.383515;
   (0, 1, 2) 0.401069 0.204253 0.394679;
   (1, 1, 2) 0.318391 0.517215 0.164395;
   (2, 1, 2) 0.160181 0.396136 0.443683;
   (0, 2, 2) 0.145251 0.186262 0.668486;
   (1, 2, 2) 0.077296 0.528091 0.394613;
   (2, 2, 2) 0.368203 0.0108603 0.620937;
   (0, 0, 3) 0.325328 0.30176 0.372912;
   (1, 0, 3) 0.351747 0.241186 0.407067;
   (2, 0, 3) 0.232664 0.431415 0.335921;
   (0, 1, 3) 0.194975 0.555071 0.249955;
   (1, 1, 3) 0.873279 0.0476448 0.0790758;
   (2, 1, 3) 0.587187 0.142352 0.27046;
   (0, 2, 3) 0.306246 0.397189 0.296565;
   (1, 2, 3) 0.0857054 0.413723 0.500572;
   (2, 2, 3) 0.550005 0.246701 0.203294;
}
probability (X09) {
   table 0.3356 0.235027 0.317956 0.111417;
}
probability (X08) {
   table 0.00400994 0.464761 0.268702 0.262527;
}
probability (X14 | X10, X08) {
   (0, 0) 0.237404 0.762596;
   (1, 0) 0.570604 0.429396;
   (2, 0) 0.623395 0.376605;
   (0, 1) 0.707799 0.292201;
   (1, 1) 0.426818 0.573182;
   (2, 1) 0.47955 0.52045;
   (0, 2) 0.434621 0.565379;
   (1, 2) 0.777021 0.222979;
   (2, 2) 0.304492 0.695508;
   (0, 3) 0.88253 0.11747;
   (1, 3) 0.696698 0.303302;
   (2, 3) 0.799669 0.200331;
}
probability (X17 | X16) {
   (0) 0.14858 0.85142;
   (1) 0.507773 0.492227;
   (2) 0.47257 0.52743;
}
probability (X19 | X16) {
   (0) 0.261266 0.346274 0.39246;
   (1) 0.232445 0.157002 0.610553;
   (2) 0.614318 0.324924 0.0607583;
}
probability (X28 | X27, X06) {
   (0, 0) 0.187519 0.0553835 0.571356 0.185741;
   (1, 0) 0.151832 0.324773 0.23562 0.287774;
   (2, 0) 0.246373 0.319134 0.0875476 0.346946;
   (3, 0) 0.338961 0.226476 0.144545 0.290018;
   (0, 1) 0.299614 0.247423 0.25212 0.200843;
   (1, 1) 0.0744327 0.282913 0.520799 0.121855;
   (2, 1) 0.164654 0.184266 0.10019 0.55089;
   (3, 1) 0.110869 0.228585 0.490911 0.169636;
   (0, 2) 0.149889 0.521101 0.244655 0.0843548;
   (1, 2) 0.123622 0.17264 0.690625 0.0131139;
   (2, 2) 0.295687 0.532465 0.0115997 0.160248;
   (3, 2) 0.488181 0.152064 0.121515 0.23824;
   (0, 3) 0.320144 0.310496 0.108667 0.260693;
   (1, 3) 0.265951 0.286232 0.0921937 0.355624;
   (2, 3) 0.224302 0.395707 0.356778 0.0232138;
   (3, 3) 0.32162 0.271952 0.316833 0.089595;
}
probability (X12 | X11) {
   (0) 0.317198 0.223212 0.0732647 0.386324;
   (1) 0.118135 0.283644 0.166944 0.431276;
}
probability (X18 | X17, X07) {
   (0, 0) 0.22998 0.77002;
   (1, 0) 0.759217 0.240783;
   (0, 1) 0.283657 0.716343;
   (1, 1) 0.592309 0.407691;
   (0, 2) 0.315626 0.684374;
   (1, 2) 0.894824 0.105176;
}
probability (X07) {
   table 0.488792 0.179109 0.3321;
}
probability (X23 | X05, X20) {
   (0, 0) 0.383844 0.616156;
   (1, 0) 0.187274 0.812726;
   (2, 0) 0.896167 0.103833;
   (0, 1) 0.264458 0.735542;
   (1, 1) 0.614035 0.385965;
   (2, 1) 0.264567 0.735433;
   (0, 2) 0.104871 0.895129;
   (1, 2) 0.117171 0.882829;
   (2, 2) 0.436813 0.563187;
   (0, 3) 0.63118 0.36882;
   (1, 3) 0.956858 0.0431421;
   (2, 3) 0.568362 0.431638;
}
probability (X05) {
   table 0.520067 0.0988076 0.381125;
}
probability (X24 | X23) {
   (0) 0.453506 0.118542 0.427952;
   (1) 0.252747 0.484451 0.262802;
}
probability (X02) {
   table 0.426198 0.0312286 0.542573;
}
probability (X00) {
   table 0.407986 0.0503228 0.188498 0.353193;
}
probability (X22 | X20) {
   (0) 0.771808 0.228192;
   (1) 0.76037 0.23963;
   (2) 0.548827 0.451173;
   (3) 0.240816 0.759184;
}

