network "unnamedBN" {
// written by aGrUM 2.0.1
}

variable X25 {
   type discrete[2] {0, 1};
}

variable X18 {
   type discrete[2] {0, 1};
}

variable X37 {
   type discrete[4] {0, 1, 2, 3};
}

variable X36 {
   type discrete[4] {0, 1, 2, 3};
}

variable X38 {
   type discrete[3] {0, 1, 2};
}

variable X28 {
   type discrete[3] {0, 1, 2};
}

variable X04 {
   type discrete[2] {0, 1};
}

variable X06 {
   type discrete[2] {0, 1};
}

variable X19 {
   type discrete[2] {0, 1};
}

variable X22 {
   type discrete[4] {0, 1, 2, 3};
}

variable X23 {
   type discrete[2] {0, 1};
}

variable X39 {
   type discrete[4] {0, 1, 2, 3};
}

variable X20 {
   type discrete[2] {0, 1};
}

variable X17 {
   type discrete[3] {0, 1, 2};
}

variable X21 {
   type discrete[4] {0, 1, 2, 3};
}

variable X27 {
   type discrete[4] {0, 1, 2, 3};
}

variable X12 {
   type discrete[3] {0, 1, 2};
}

variable X32 {
   type discrete[3] {0, 1, 2};
}

variable X33 {
   type discrete[2] {0, 1};
}

variable X14 {
   type discrete[2] {0, 1};
}

variable X11 {
   type discrete[4] {0, 1, 2, 3};
}

variable X16 {
   type discrete[3] {0, 1, 2};
}

variable X13 {
   type discrete[3] {0, 1, 2};
}

variable X26 {
   type discrete[2] {0, 1};
}

variable X10 {
   type discrete[4] {0, 1, 2, 3};
}

variable X30 {
   type discrete[4] {0, 1, 2, 3};
}

variable X08 {
   type discrete[4] {0, 1, 2, 3};
}

variable X34 {
   type discrete[2] {0, 1};
}

variable X07 {
   type discrete[4] {0, 1, 2, 3};
}

variable X35 {
   type discrete[2] {0, 1};
}

variable X09 {
   type discrete[4] {0, 1, 2, 3};
}

variable X05 {
   type discrete[2] {0, 1};
}

variable X03 {
   type discrete[4] {0, 1, 2, 3};
}

variable X24 {
   type discrete[4] {0, 1, 2, 3};
}

variable X15 {
   type discrete[2] {0, 1};
}

variable X02 {
   type discrete[2] {0, 1};
}

variable X01 {
   type discrete[4] {0, 1, 2, 3};
}

variable X29 {
   type discrete[4] {0, 1, 2, 3};
}

variable X31 {
   type discrete[4] {0, 1, 2, 3};
}

variable X00 {
   type discrete[4] {0, 1, 2, 3};
}

probability (X25 | X00, X22, X10) {
   (0, 0, 0) 0.514965 0.485035;
   (1, 0, 0) 0.121253 0.878747;
   (2, 0, 0) 0.145252 0.854748;
   (3, 0, 0) 0.649455 0.350545;
   (0, 1, 0) 0.464172 0.535828;
   (1, 1, 0) 0.603312 0.396688;
   (2, 1, 0) 0.95467 0.0453301;
   (3, 1, 0) 0.13094 0.86906;
   (0, 2, 0) 0.96156 0.0384398;
   (1, 2, 0) 0.260155 0.739845;
   (2, 2, 0) 0.767532 0.232468;
   (3, 2, 0) 0.652405 0.347595;
   (0, 3, 0) 0.672862 0.327138;
   (1, 3, 0) 0.422578 0.577422;
   (2, 3, 0) 0.314603 0.685397;
   (3, 3, 0) 0.920839 0.0791607;
   (0, 0, 1) 0.649 0.351;
   (1, 0, 1) 0.172044 0.827956;
   (2, 0, 1) 0.00262839 0.997372;
   (3, 0, 1) 0.364791 0.635209;
   (0, 1, 1) 0.0898599 0.91014;
   (1, 1, 1) 0.87897 0.12103;
   (2, 1, 1) 0.694197 0.305803;
   (3, 1, 1) 0.50713 0.49287;
   (0, 2, 1) 0.053758 0.946242;
   (1, 2, 1) 0.365189 0.634811;
   (2, 2, 1) 0.0124448 0.987555;
   (3, 2, 1) 0.805843 0.194157;
   (0, 3, 1) 0.408793 0.591207;
   (1, 3, 1) 0.693631 0.306369;
   (2, 3, 1) 0.59263 0.40737;
   (3, 3, 1) 0.0888201 0.91118;
   (0, 0, 2) 0.0863546 0.913645;
   (1, 0, 2) 0.692625 0.307375;
   (2, 0, 2) 0.766772 0.233228;
   (3, 0, 2) 0.825501 0.174499;
   (0, 1, 2) 0.620447 0.379553;
   (1, 1, 2) 0.389242 0.610758;
   (2, 1, 2) 0.392809 0.607191;
   (3, 1, 2) 0.593939 0.406061;
   (0, 2, 2) 0.462532 0.537468;
   (1, 2, 2) 0.734834 0.265166;
   (2, 2, 2) 0.115656 0.884344;
   (3, 2, 2) 0.949889 0.0501114;
   (0, 3, 2) 0.323215 0.676785;
   (1, 3, 2) 0.903385 0.0966152;
   (2, 3, 2) 0.477245 0.522755;
   (3, 3, 2) 0.717716 0.282284;
   (0, 0, 3) 0.736898 0.263102;
   (1, 0, 3) 0.650181 0.349819;
   (2, 0, 3) 0.462419 0.537581;
   (3, 0, 3) 0.253613 0.746387;
   (0, 1, 3) 0.708392 0.291608;
   (1, 1, 3) 0.483043 0.516957;
   (2, 1, 3) 0.466461 0.533539;
   (3, 1, 3) 0.60679 0.39321;
   (0, 2, 3) 0.913425 0.0865754;
   (1, 2, 3) 0.492845 0.507155;
   (2, 2, 3) 0.393224 0.606776;
   (3, 2, 3) 0.0374847 0.962515;
   (0, 3, 3) 0.265063 0.734937;
   (1, 3, 3) 0.232281 0.767719;
   (2, 3, 3) 0.942023 0.057977;
   (3, 3, 3) 0.435017 0.564983;
}
probability (X18 | X17) {
   (0) 0.76227 0.23773;
   (1) 0.445955 0.554045;
   (2) 0.250657 0.749343;
}
probability (X37 | X20, X07, X36) {
   (0, 0, 0) 0.33883 0.329379 0.124357 0.207434;
   (1, 0, 0) 0.120018 0.353733 0.257836 0.268413;
   (0, 1, 0) 0.211782 0.163067 0.176589 0.448562;
   (1, 1, 0) 0.233564 0.335811 0.315138 0.115486;
   (0, 2, 0) 0.229405 0.202512 0.131157 0.436926;
   (1, 2, 0) 0.158187 0.119815 0.332508 0.389489;
   (0, 3, 0) 0.395342 0.254692 0.329276 0.0206897;
   (1, 3, 0) 0.0336379 0.872328 0.0883107 0.00572356;
   (0, 0, 1) 0.0182147 0.373204 0.220577 0.388004;
   (1, 0, 1) 0.265132 0.369637 0.357026 0.00820544;
   (0, 1, 1) 0.17171 0.276614 0.255362 0.296315;
   (1, 1, 1) 0.18544 0.191494 0.470076 0.152991;
   (0, 2, 1) 0.136588 0.360486 0.0295648 0.473361;
   (1, 2, 1) 0.239457 0.479145 0.152972 0.128425;
   (0, 3, 1) 0.192678 0.208906 0.28802 0.310396;
   (1, 3, 1) 0.468922 0.343081 0.152536 0.0354607;
   (0, 0, 2) 0.124585 0.320256 0.154781 0.400378;
   (1, 0, 2) 0.330522 0.313553 0.167129 0.188796;
   (0, 1, 2) 0.0701289 0.29745 0.431311 0.201111;
   (1, 1, 2) 0.295324 0.268595 0.0312251 0.404856;
   (0, 2, 2) 0.195464 0.207127 0.433832 0.163577;
   (1, 2, 2) 0.228417 0.274929 0.232785 0.263869;
   (0, 3, 2) 0.353301 0.207972 0.167072 0.271655;
   (1, 3, 2) 0.199796 0.169134 0.315415 0.315654;
   (0, 0, 3) 0.338133 0.0310346 0.337736 0.293096;
   (1, 0, 3) 0.0354972 0.358614 0.292072 0.313817;
   (0, 1, 3) 0.307632 0.293557 0.08903 0.309781;
   (1, 1, 3) 0.323289 0.284115 0.320531 0.0720654;
   (0, 2, 3) 0.252657 0.198619 0.302431 0.246293;
   (1, 2, 3) 0.0668568 0.276543 0.236674 0.419926;
   (0, 3, 3) 0.391245 0.0274409 0.122881 0.458434;
   (1, 3, 3) 0.0877824 0.359749 0.379672 0.172796;
}
probability (X36) {
   table 0.453003 0.312187 0.230377 0.00443269;
}
probability (X38 | X36) {
   (0) 0.49478 0.25282 0.252399;
   (1) 0.372209 0.50448 0.123311;
   (2) 0.72581 0.186931 0.0872591;
   (3) 0.379312 0.285613 0.335075;
}
probability (X28) {
   table 0.371799 0.515045 0.113156;
}
probability (X04 | X03) {
   (0) 0.160592 0.839408;
   (1) 0.396673 0.603327;
   (2) 0.468487 0.531513;
   (3) 0.779552 0.220448;
}
probability (X06 | X05) {
   (0) 0.115558 0.884442;
   (1) 0.270879 0.729121;
}
probability (X19 | X13, X18) {
   (0, 0) 0.38873 0.61127;
   (1, 0) 0.628566 0.371434;
   (2, 0) 0.524172 0.475828;
   (0, 1) 0.30222 0.69778;
   (1, 1) 0.429999 0.570001;
   (2, 1) 0.166422 0.833578;
}
probability (X22) {
   table 0.262881 0.227811 0.339993 0.169314;
}
probability (X23 | X22) {
   (0) 0.66291 0.33709;
   (1) 0.416122 0.583878;
   (2) 0.486887 0.513113;
   (3) 0.465713 0.534287;
}
probability (X39 | X36, X22) {
   (0, 0) 0.367435 0.328938 0.0486054 0.255021;
   (1, 0) 0.278161 0.327869 0.19552 0.198449;
   (2, 0) 0.104589 0.351603 0.0531386 0.49067;
   (3, 0) 0.539892 0.22644 0.158245 0.0754223;
   (0, 1) 0.20042 0.444584 0.113767 0.241229;
   (1, 1) 0.302777 0.081918 0.204019 0.411286;
   (2, 1) 0.377709 0.00170617 0.356455 0.264129;
   (3, 1) 0.391675 0.224768 0.237532 0.146025;
   (0, 2) 0.10271 0.0568732 0.584436 0.255981;
   (1, 2) 0.355941 0.299492 0.0616088 0.282958;
   (2, 2) 0.350142 0.61542 0.00013559 0.0343022;
   (3, 2) 0.022872 0.117493 0.402482 0.457153;
   (0, 3) 0.296043 0.380914 0.0360416 0.287;
   (1, 3) 0.286889 0.380484 0.0325544 0.300072;
   (2, 3) 0.329349 0.332091 0.0836864 0.254874;
   (3, 3) 0.372228 0.243587 0.192227 0.191958;
}
probability (X20) {
   table 0.848884 0.151116;
}
probability (X17) {
   table 0.400542 0.329119 0.270339;
}
probability (X21 | X20) {
   (0) 0.381281 0.220323 0.119955 0.27844;
   (1) 0.25872 0.114374 0.31735 0.309556;
}
probability (X27 | X22, X02) {
   (0, 0) 0.247064 0.346495 0.24731 0.159132;
   (1, 0) 0.141706 0.438888 0.208603 0.210803;
   (2, 0) 0.282935 0.31942 0.0558042 0.341841;
   (3, 0) 0.112067 0.122818 0.39572 0.369395;
   (0, 1) 0.64181 0.0371002 0.0091193 0.31197;
   (1, 1) 0.320709 0.225227 0.259 0.195063;
   (2, 1) 0.422971 0.125535 0.263577 0.187916;
   (3, 1) 0.445845 0.379825 0.138729 0.0356013;
}
probability (X12) {
   table 0.315083 0.123832 0.561085;
}
probability (X32 | X31) {
   (0) 0.503808 0.0271845 0.469007;
   (1) 0.0409576 0.445281 0.513761;
   (2) 0.482838 0.0902371 0.426925;
   (3) 0.355682 0.210063 0.434255;
}
probability (X33 | X32) {
   (0) 0.790114 0.209886;
   (1) 0.232343 0.767657;
   (2) 0.682267 0.317733;
}
probability (X14 | X12) {
   (0) 0.793997 0.206003;
   (1) 0.549698 0.450302;
   (2) 0.924617 0.0753833;
}
probability (X11) {
   table 0.167989 0.325058 0.350627 0.156326;
}
probability (X16 | X14) {
   (0) 0.379904 0.256491 0.363605;
   (1) 0.311312 0.360195 0.328493;
}
probability (X13 | X12) {
   (0) 0.205724 0.40549 0.388785;
   (1) 0.395189 0.450675 0.154136;
   (2) 0.390485 0.042022 0.567493;
}
probability (X26 | X22, X12) {
   (0, 0) 0.193491 0.806509;
   (1, 0) 0.0963369 0.903663;
   (2, 0) 0.864835 0.135165;
   (3, 0) 0.379416 0.620584;
   (0, 1) 0.946833 0.0531667;
   (1, 1) 0.0821118 0.917888;
   (2, 1) 0.634392 0.365608;
   (3, 1) 0.454672 0.545328;
   (0, 2) 0.138456 0.861544;
   (1, 2) 0.314093 0.685907;
   (2, 2) 0.682819 0.317181;
   (3, 2) 0.815839 0.184161;
}
probability (X10) {
   table 0.271536 0.0876735 0.422584 0.218207;
}
probability (X30 | X29, X01) {
   (0, 0) 0.186049 0.522452 0.170149 0.121351;
   (1, 0) 0.380766 0.242248 0.0753504 0.301635;
   (2, 0) 0.15363 0.347901 0.230433 0.268035;
   (3, 0) 0.532256 0.0712586 0.00914079 0.387345;
   (0, 1) 0.182906 0.287493 0.225426 0.304175;
   (1, 1) 0.396469 0.0744812 0.21249 0.31656;
   (2, 1) 0.308042 0.0758182 0.308753 0.307387;
   (3, 1) 0.195154 0.331015 0.249576 0.224256;
   (0, 2) 0.137107 0.109043 0.302937 0.450913;
   (1, 2) 0.400744 0.257578 0.121079 0.220599;
   (2, 2) 0.326548 0.102312 0.137966 0.433174;
   (3, 2) 0.0999537 0.379329 0.351496 0.169221;
   (0, 3) 0.187359 0.0417126 0.340588 0.43034;
   (1, 3) 0.319356 0.297645 0.274626 0.108373;
   (2, 3) 0.340919 0.234891 0.377693 0.0464965;
   (3, 3) 0.201788 0.452544 0.331119 0.0145486;
}
probability (X08) {
   table 0.0623422 0.268519 0.360548 0.308591;
}
probability (X34 | X08, X29) {
   (0, 0) 0.641999 0.358001;
   (1, 0) 0.887225 0.112775;
   (2, 0) 0.78575 0.21425;
   (3, 0) 0.402553 0.597447;
   (0, 1) 0.171632 0.828368;
   (1, 1) 0.880843 0.119157;
   (2, 1) 0.58727 0.41273;
   (3, 1) 0.356519 0.643481;
   (0, 2) 0.613933 0.386067;
   (1, 2) 0.45105 0.54895;
   (2, 2) 0.608675 0.391325;
   (3, 2) 0.48295 0.51705;
   (0, 3) 0.484299 0.515701;
   (1, 3) 0.509945 0.490055;
   (2, 3) 0.841995 0.158005;
   (3, 3) 0.262702 0.737298;
}
probability (X07) {
   table 0.341025 0.256339 0.0241462 0.378489;
}
probability (X35 | X34) {
   (0) 0.600536 0.399464;
   (1) 0.512551 0.487449;
}
probability (X09 | X08, X03) {
   (0, 0) 0.0233732 0.2051 0.550473 0.221054;
   (1, 0) 0.177711 0.473478 0.335479 0.0133326;
   (2, 0) 0.333096 0.29154 0.149738 0.225625;
   (3, 0) 0.0826023 0.281038 0.235266 0.401093;
   (0, 1) 0.0283264 0.566217 0.37702 0.0284371;
   (1, 1) 0.152606 0.100621 0.308983 0.43779;
   (2, 1) 0.110742 0.235009 0.289754 0.364495;
   (3, 1) 0.111367 0.418408 0.372111 0.0981133;
   (0, 2) 0.393476 0.138786 0.379901 0.0878371;
   (1, 2) 0.122745 0.203397 0.458329 0.215529;
   (2, 2) 0.297615 0.340737 0.0679049 0.293744;
   (3, 2) 0.319054 0.255624 0.21603 0.209292;
   (0, 3) 0.287153 0.194179 0.300783 0.217884;
   (1, 3) 0.445093 0.214117 0.193445 0.147345;
   (2, 3) 0.202151 0.305901 0.0385743 0.453374;
   (3, 3) 0.308106 0.189136 0.371028 0.131731;
}
probability (X05 | X04) {
   (0) 0.46958 0.53042;
   (1) 0.139297 0.860703;
}
probability (X03) {
   table 0.133845 0.437578 0.110242 0.318335;
}
probability (X24 | X23, X03) {
   (0, 0) 0.43997 0.340633 0.115978 0.103419;
   (1, 0) 0.128598 0.297236 0.409596 0.16457;
   (0, 1) 0.503196 0.17101 0.00244344 0.323351;
   (1, 1) 0.337532 0.291951 0.28989 0.0806273;
   (0, 2) 0.116532 0.297354 0.421374 0.164739;
   (1, 2) 0.165557 0.388311 0.0334854 0.412647;
   (0, 3) 0.271916 0.14902 0.413659 0.165405;
   (1, 3) 0.387661 0.0377637 0.117116 0.457459;
}
probability (X15 | X14, X02) {
   (0, 0) 0.743746 0.256254;
   (1, 0) 0.734637 0.265363;
   (0, 1) 0.462946 0.537054;
   (1, 1) 0.747139 0.252861;
}
probability (X02) {
   table 0.455362 0.544638;
}
probability (X01) {
   table 0.175263 0.243406 0.265985 0.315346;
}
probability (X29 | X28) {
   (0) 0.141782 0.326971 0.217853 0.313394;
   (1) 0.269469 0.420429 0.148102 0.162;
   (2) 0.151153 0.336526 0.131011 0.381311;
}
probability (X31 | X29, X11) {
   (0, 0) 0.348867 0.196559 0.256321 0.198253;
   (1, 0) 0.351104 0.100651 0.133347 0.414898;
   (2, 0) 0.285686 0.0771062 0.233529 0.403678;
   (3, 0) 0.240798 0.0106082 0.384571 0.364022;
   (0, 1) 0.391205 0.348408 0.153052 0.107335;
   (1, 1) 0.411108 0.209243 0.230189 0.14946;
   (2, 1) 0.270418 0.16609 0.230274 0.333218;
   (3, 1) 0.38117 0.35605 0.080549 0.182231;
   (0, 2) 0.0950303 0.0531504 0.18474 0.66708;
   (1, 2) 0.0317499 0.127338 0.325423 0.51549;
   (2, 2) 0.460498 0.0671383 0.18021 0.292153;
   (3, 2) 0.130563 0.693165 0.135225 0.041046;
   (0, 3) 0.10367 0.143576 0.299405 0.45335;
   (1, 3) 0.0687321 0.375213 0.254084 0.301971;
   (2, 3) 0.370509 0.161572 0.137951 0.329967;
   (3, 3) 0.146748 0.266904 0.131099 0.455249;
}
probability (X00) {
   table 0.314763 0.370144 0.190599 0.124494;
}

